digraph Tree {
node [shape=box] ;
0 [label="X[15] <= 1.14\ngini = 0.168\nsamples = 3274\nvalue = [3, 2971, 300]"] ;
1 [label="X[14] <= -0.119\ngini = 0.103\nsamples = 3142\nvalue = [3, 2971, 168]"] ;
0 -> 1 [labeldistance=2.5, labelangle=45, headlabel="True"] ;
2 [label="gini = 0.0\nsamples = 1452\nvalue = [0, 1452, 0]"] ;
1 -> 2 ;
3 [label="X[18] <= -0.412\ngini = 0.182\nsamples = 1690\nvalue = [3, 1519, 168]"] ;
1 -> 3 ;
4 [label="X[64] <= 1.374\ngini = 0.105\nsamples = 1225\nvalue = [3, 1157, 65]"] ;
3 -> 4 ;
5 [label="X[16] <= 0.802\ngini = 0.08\nsamples = 1102\nvalue = [3, 1056, 43]"] ;
4 -> 5 ;
6 [label="X[21] <= 1.746\ngini = 0.077\nsamples = 1100\nvalue = [1, 1056, 43]"] ;
5 -> 6 ;
7 [label="X[65] <= 3.303\ngini = 0.069\nsamples = 1084\nvalue = [1, 1045, 38]"] ;
6 -> 7 ;
8 [label="X[65] <= -0.044\ngini = 0.066\nsamples = 1079\nvalue = [1, 1042, 36]"] ;
7 -> 8 ;
9 [label="X[60] <= -2.196\ngini = 0.034\nsamples = 572\nvalue = [1, 562, 9]"] ;
8 -> 9 ;
10 [label="X[38] <= 0.249\ngini = 0.375\nsamples = 4\nvalue = [0, 3, 1]"] ;
9 -> 10 ;
11 [label="gini = 0.0\nsamples = 1\nvalue = [0, 0, 1]"] ;
10 -> 11 ;
12 [label="gini = 0.0\nsamples = 3\nvalue = [0, 3, 0]"] ;
10 -> 12 ;
13 [label="X[64] <= -2.097\ngini = 0.031\nsamples = 568\nvalue = [1, 559, 8]"] ;
9 -> 13 ;
14 [label="X[18] <= -0.514\ngini = 0.278\nsamples = 6\nvalue = [1, 5, 0]"] ;
13 -> 14 ;
15 [label="gini = 0.0\nsamples = 5\nvalue = [0, 5, 0]"] ;
14 -> 15 ;
16 [label="gini = 0.0\nsamples = 1\nvalue = [1, 0, 0]"] ;
14 -> 16 ;
17 [label="X[51] <= 0.189\ngini = 0.028\nsamples = 562\nvalue = [0, 554, 8]"] ;
13 -> 17 ;
18 [label="X[62] <= -1.784\ngini = 0.016\nsamples = 482\nvalue = [0, 478, 4]"] ;
17 -> 18 ;
19 [label="X[60] <= -1.117\ngini = 0.142\nsamples = 13\nvalue = [0, 12, 1]"] ;
18 -> 19 ;
20 [label="gini = 0.0\nsamples = 11\nvalue = [0, 11, 0]"] ;
19 -> 20 ;
21 [label="X[49] <= -0.65\ngini = 0.5\nsamples = 2\nvalue = [0, 1, 1]"] ;
19 -> 21 ;
22 [label="gini = 0.0\nsamples = 1\nvalue = [0, 0, 1]"] ;
21 -> 22 ;
23 [label="gini = 0.0\nsamples = 1\nvalue = [0, 1, 0]"] ;
21 -> 23 ;
24 [label="X[40] <= -0.706\ngini = 0.013\nsamples = 469\nvalue = [0, 466, 3]"] ;
18 -> 24 ;
25 [label="X[37] <= 0.079\ngini = 0.045\nsamples = 131\nvalue = [0, 128, 3]"] ;
24 -> 25 ;
26 [label="X[16] <= 0.194\ngini = 0.031\nsamples = 127\nvalue = [0, 125, 2]"] ;
25 -> 26 ;
27 [label="gini = 0.0\nsamples = 105\nvalue = [0, 105, 0]"] ;
26 -> 27 ;
28 [label="X[24] <= -0.505\ngini = 0.165\nsamples = 22\nvalue = [0, 20, 2]"] ;
26 -> 28 ;
29 [label="X[55] <= 1.715\ngini = 0.091\nsamples = 21\nvalue = [0, 20, 1]"] ;
28 -> 29 ;
30 [label="gini = 0.0\nsamples = 17\nvalue = [0, 17, 0]"] ;
29 -> 30 ;
31 [label="X[52] <= -0.555\ngini = 0.375\nsamples = 4\nvalue = [0, 3, 1]"] ;
29 -> 31 ;
32 [label="gini = 0.0\nsamples = 3\nvalue = [0, 3, 0]"] ;
31 -> 32 ;
33 [label="gini = 0.0\nsamples = 1\nvalue = [0, 0, 1]"] ;
31 -> 33 ;
34 [label="gini = 0.0\nsamples = 1\nvalue = [0, 0, 1]"] ;
28 -> 34 ;
35 [label="X[25] <= -0.565\ngini = 0.375\nsamples = 4\nvalue = [0, 3, 1]"] ;
25 -> 35 ;
36 [label="gini = 0.0\nsamples = 1\nvalue = [0, 0, 1]"] ;
35 -> 36 ;
37 [label="gini = 0.0\nsamples = 3\nvalue = [0, 3, 0]"] ;
35 -> 37 ;
38 [label="gini = 0.0\nsamples = 338\nvalue = [0, 338, 0]"] ;
24 -> 38 ;
39 [label="X[4] <= -2.391\ngini = 0.095\nsamples = 80\nvalue = [0, 76, 4]"] ;
17 -> 39 ;
40 [label="gini = 0.0\nsamples = 1\nvalue = [0, 0, 1]"] ;
39 -> 40 ;
41 [label="X[64] <= 1.126\ngini = 0.073\nsamples = 79\nvalue = [0, 76, 3]"] ;
39 -> 41 ;
42 [label="X[12] <= 3.167\ngini = 0.027\nsamples = 74\nvalue = [0, 73, 1]"] ;
41 -> 42 ;
43 [label="gini = 0.0\nsamples = 72\nvalue = [0, 72, 0]"] ;
42 -> 43 ;
44 [label="X[63] <= 0.52\ngini = 0.5\nsamples = 2\nvalue = [0, 1, 1]"] ;
42 -> 44 ;
45 [label="gini = 0.0\nsamples = 1\nvalue = [0, 1, 0]"] ;
44 -> 45 ;
46 [label="gini = 0.0\nsamples = 1\nvalue = [0, 0, 1]"] ;
44 -> 46 ;
47 [label="X[65] <= -0.664\ngini = 0.48\nsamples = 5\nvalue = [0, 3, 2]"] ;
41 -> 47 ;
48 [label="gini = 0.0\nsamples = 3\nvalue = [0, 3, 0]"] ;
47 -> 48 ;
49 [label="gini = 0.0\nsamples = 2\nvalue = [0, 0, 2]"] ;
47 -> 49 ;
50 [label="X[19] <= -1.234\ngini = 0.101\nsamples = 507\nvalue = [0, 480, 27]"] ;
8 -> 50 ;
51 [label="X[58] <= 1.518\ngini = 0.233\nsamples = 67\nvalue = [0, 58, 9]"] ;
50 -> 51 ;
52 [label="X[4] <= 2.313\ngini = 0.137\nsamples = 54\nvalue = [0, 50, 4]"] ;
51 -> 52 ;
53 [label="X[4] <= -2.022\ngini = 0.075\nsamples = 51\nvalue = [0, 49, 2]"] ;
52 -> 53 ;
54 [label="gini = 0.0\nsamples = 1\nvalue = [0, 0, 1]"] ;
53 -> 54 ;
55 [label="X[19] <= -1.246\ngini = 0.039\nsamples = 50\nvalue = [0, 49, 1]"] ;
53 -> 55 ;
56 [label="gini = 0.0\nsamples = 48\nvalue = [0, 48, 0]"] ;
55 -> 56 ;
57 [label="X[45] <= -0.235\ngini = 0.5\nsamples = 2\nvalue = [0, 1, 1]"] ;
55 -> 57 ;
58 [label="gini = 0.0\nsamples = 1\nvalue = [0, 0, 1]"] ;
57 -> 58 ;
59 [label="gini = 0.0\nsamples = 1\nvalue = [0, 1, 0]"] ;
57 -> 59 ;
60 [label="X[52] <= 0.055\ngini = 0.444\nsamples = 3\nvalue = [0, 1, 2]"] ;
52 -> 60 ;
61 [label="gini = 0.0\nsamples = 1\nvalue = [0, 1, 0]"] ;
60 -> 61 ;
62 [label="gini = 0.0\nsamples = 2\nvalue = [0, 0, 2]"] ;
60 -> 62 ;
63 [label="X[40] <= -0.489\ngini = 0.473\nsamples = 13\nvalue = [0, 8, 5]"] ;
51 -> 63 ;
64 [label="gini = 0.0\nsamples = 7\nvalue = [0, 7, 0]"] ;
63 -> 64 ;
65 [label="X[50] <= -0.688\ngini = 0.278\nsamples = 6\nvalue = [0, 1, 5]"] ;
63 -> 65 ;
66 [label="gini = 0.0\nsamples = 1\nvalue = [0, 1, 0]"] ;
65 -> 66 ;
67 [label="gini = 0.0\nsamples = 5\nvalue = [0, 0, 5]"] ;
65 -> 67 ;
68 [label="X[39] <= 1.367\ngini = 0.078\nsamples = 440\nvalue = [0, 422, 18]"] ;
50 -> 68 ;
69 [label="X[43] <= 0.578\ngini = 0.071\nsamples = 431\nvalue = [0, 415, 16]"] ;
68 -> 69 ;
70 [label="X[25] <= -0.823\ngini = 0.058\nsamples = 400\nvalue = [0, 388, 12]"] ;
69 -> 70 ;
71 [label="X[37] <= -0.051\ngini = 0.106\nsamples = 196\nvalue = [0, 185, 11]"] ;
70 -> 71 ;
72 [label="X[64] <= 0.63\ngini = 0.089\nsamples = 192\nvalue = [0, 183, 9]"] ;
71 -> 72 ;
73 [label="X[0] <= -1.369\ngini = 0.038\nsamples = 154\nvalue = [0, 151, 3]"] ;
72 -> 73 ;
74 [label="X[45] <= -0.704\ngini = 0.444\nsamples = 3\nvalue = [0, 2, 1]"] ;
73 -> 74 ;
75 [label="gini = 0.0\nsamples = 2\nvalue = [0, 2, 0]"] ;
74 -> 75 ;
76 [label="gini = 0.0\nsamples = 1\nvalue = [0, 0, 1]"] ;
74 -> 76 ;
77 [label="X[58] <= 1.771\ngini = 0.026\nsamples = 151\nvalue = [0, 149, 2]"] ;
73 -> 77 ;
78 [label="X[38] <= -0.364\ngini = 0.014\nsamples = 141\nvalue = [0, 140, 1]"] ;
77 -> 78 ;
79 [label="gini = 0.0\nsamples = 132\nvalue = [0, 132, 0]"] ;
78 -> 79 ;
80 [label="X[63] <= 0.52\ngini = 0.198\nsamples = 9\nvalue = [0, 8, 1]"] ;
78 -> 80 ;
81 [label="gini = 0.0\nsamples = 8\nvalue = [0, 8, 0]"] ;
80 -> 81 ;
82 [label="gini = 0.0\nsamples = 1\nvalue = [0, 0, 1]"] ;
80 -> 82 ;
83 [label="X[0] <= 1.334\ngini = 0.18\nsamples = 10\nvalue = [0, 9, 1]"] ;
77 -> 83 ;
84 [label="gini = 0.0\nsamples = 9\nvalue = [0, 9, 0]"] ;
83 -> 84 ;
85 [label="gini = 0.0\nsamples = 1\nvalue = [0, 0, 1]"] ;
83 -> 85 ;
86 [label="X[16] <= -0.908\ngini = 0.266\nsamples = 38\nvalue = [0, 32, 6]"] ;
72 -> 86 ;
87 [label="X[54] <= 0.497\ngini = 0.069\nsamples = 28\nvalue = [0, 27, 1]"] ;
86 -> 87 ;
88 [label="gini = 0.0\nsamples = 26\nvalue = [0, 26, 0]"] ;
87 -> 88 ;
89 [label="X[20] <= -1.2\ngini = 0.5\nsamples = 2\nvalue = [0, 1, 1]"] ;
87 -> 89 ;
90 [label="gini = 0.0\nsamples = 1\nvalue = [0, 0, 1]"] ;
89 -> 90 ;
91 [label="gini = 0.0\nsamples = 1\nvalue = [0, 1, 0]"] ;
89 -> 91 ;
92 [label="X[62] <= 1.075\ngini = 0.5\nsamples = 10\nvalue = [0, 5, 5]"] ;
86 -> 92 ;
93 [label="X[5] <= 0.086\ngini = 0.408\nsamples = 7\nvalue = [0, 2, 5]"] ;
92 -> 93 ;
94 [label="gini = 0.0\nsamples = 4\nvalue = [0, 0, 4]"] ;
93 -> 94 ;
95 [label="X[16] <= 0.123\ngini = 0.444\nsamples = 3\nvalue = [0, 2, 1]"] ;
93 -> 95 ;
96 [label="gini = 0.0\nsamples = 2\nvalue = [0, 2, 0]"] ;
95 -> 96 ;
97 [label="gini = 0.0\nsamples = 1\nvalue = [0, 0, 1]"] ;
95 -> 97 ;
98 [label="gini = 0.0\nsamples = 3\nvalue = [0, 3, 0]"] ;
92 -> 98 ;
99 [label="X[55] <= -0.396\ngini = 0.5\nsamples = 4\nvalue = [0, 2, 2]"] ;
71 -> 99 ;
100 [label="gini = 0.0\nsamples = 2\nvalue = [0, 0, 2]"] ;
99 -> 100 ;
101 [label="gini = 0.0\nsamples = 2\nvalue = [0, 2, 0]"] ;
99 -> 101 ;
102 [label="X[50] <= 0.866\ngini = 0.01\nsamples = 204\nvalue = [0, 203, 1]"] ;
70 -> 102 ;
103 [label="gini = 0.0\nsamples = 186\nvalue = [0, 186, 0]"] ;
102 -> 103 ;
104 [label="X[41] <= -0.551\ngini = 0.105\nsamples = 18\nvalue = [0, 17, 1]"] ;
102 -> 104 ;
105 [label="gini = 0.0\nsamples = 1\nvalue = [0, 0, 1]"] ;
104 -> 105 ;
106 [label="gini = 0.0\nsamples = 17\nvalue = [0, 17, 0]"] ;
104 -> 106 ;
107 [label="X[1] <= 1.523\ngini = 0.225\nsamples = 31\nvalue = [0, 27, 4]"] ;
69 -> 107 ;
108 [label="X[19] <= -0.795\ngini = 0.133\nsamples = 28\nvalue = [0, 26, 2]"] ;
107 -> 108 ;
109 [label="X[4] <= -0.085\ngini = 0.444\nsamples = 6\nvalue = [0, 4, 2]"] ;
108 -> 109 ;
110 [label="gini = 0.0\nsamples = 3\nvalue = [0, 3, 0]"] ;
109 -> 110 ;
111 [label="X[59] <= 2.504\ngini = 0.444\nsamples = 3\nvalue = [0, 1, 2]"] ;
109 -> 111 ;
112 [label="gini = 0.0\nsamples = 2\nvalue = [0, 0, 2]"] ;
111 -> 112 ;
113 [label="gini = 0.0\nsamples = 1\nvalue = [0, 1, 0]"] ;
111 -> 113 ;
114 [label="gini = 0.0\nsamples = 22\nvalue = [0, 22, 0]"] ;
108 -> 114 ;
115 [label="X[43] <= 1.06\ngini = 0.444\nsamples = 3\nvalue = [0, 1, 2]"] ;
107 -> 115 ;
116 [label="gini = 0.0\nsamples = 2\nvalue = [0, 0, 2]"] ;
115 -> 116 ;
117 [label="gini = 0.0\nsamples = 1\nvalue = [0, 1, 0]"] ;
115 -> 117 ;
118 [label="X[38] <= 0.965\ngini = 0.346\nsamples = 9\nvalue = [0, 7, 2]"] ;
68 -> 118 ;
119 [label="gini = 0.0\nsamples = 2\nvalue = [0, 0, 2]"] ;
118 -> 119 ;
120 [label="gini = 0.0\nsamples = 7\nvalue = [0, 7, 0]"] ;
118 -> 120 ;
121 [label="X[3] <= 0.685\ngini = 0.48\nsamples = 5\nvalue = [0, 3, 2]"] ;
7 -> 121 ;
122 [label="gini = 0.0\nsamples = 3\nvalue = [0, 3, 0]"] ;
121 -> 122 ;
123 [label="gini = 0.0\nsamples = 2\nvalue = [0, 0, 2]"] ;
121 -> 123 ;
124 [label="X[64] <= 0.135\ngini = 0.43\nsamples = 16\nvalue = [0, 11, 5]"] ;
6 -> 124 ;
125 [label="gini = 0.0\nsamples = 9\nvalue = [0, 9, 0]"] ;
124 -> 125 ;
126 [label="X[36] <= -0.231\ngini = 0.408\nsamples = 7\nvalue = [0, 2, 5]"] ;
124 -> 126 ;
127 [label="gini = 0.0\nsamples = 2\nvalue = [0, 2, 0]"] ;
126 -> 127 ;
128 [label="gini = 0.0\nsamples = 5\nvalue = [0, 0, 5]"] ;
126 -> 128 ;
129 [label="gini = 0.0\nsamples = 2\nvalue = [2, 0, 0]"] ;
5 -> 129 ;
130 [label="X[65] <= 1.691\ngini = 0.294\nsamples = 123\nvalue = [0, 101, 22]"] ;
4 -> 130 ;
131 [label="X[10] <= 2.736\ngini = 0.199\nsamples = 98\nvalue = [0, 87, 11]"] ;
130 -> 131 ;
132 [label="X[60] <= 0.579\ngini = 0.185\nsamples = 97\nvalue = [0, 87, 10]"] ;
131 -> 132 ;
133 [label="gini = 0.0\nsamples = 38\nvalue = [0, 38, 0]"] ;
132 -> 133 ;
134 [label="X[19] <= 1.562\ngini = 0.282\nsamples = 59\nvalue = [0, 49, 10]"] ;
132 -> 134 ;
135 [label="X[55] <= 0.198\ngini = 0.226\nsamples = 54\nvalue = [0, 47, 7]"] ;
134 -> 135 ;
136 [label="X[48] <= 0.595\ngini = 0.13\nsamples = 43\nvalue = [0, 40, 3]"] ;
135 -> 136 ;
137 [label="X[63] <= 2.575\ngini = 0.091\nsamples = 42\nvalue = [0, 40, 2]"] ;
136 -> 137 ;
138 [label="X[27] <= -1.224\ngini = 0.049\nsamples = 40\nvalue = [0, 39, 1]"] ;
137 -> 138 ;
139 [label="X[36] <= -0.88\ngini = 0.444\nsamples = 3\nvalue = [0, 2, 1]"] ;
138 -> 139 ;
140 [label="gini = 0.0\nsamples = 2\nvalue = [0, 2, 0]"] ;
139 -> 140 ;
141 [label="gini = 0.0\nsamples = 1\nvalue = [0, 0, 1]"] ;
139 -> 141 ;
142 [label="gini = 0.0\nsamples = 37\nvalue = [0, 37, 0]"] ;
138 -> 142 ;
143 [label="X[60] <= 1.504\ngini = 0.5\nsamples = 2\nvalue = [0, 1, 1]"] ;
137 -> 143 ;
144 [label="gini = 0.0\nsamples = 1\nvalue = [0, 0, 1]"] ;
143 -> 144 ;
145 [label="gini = 0.0\nsamples = 1\nvalue = [0, 1, 0]"] ;
143 -> 145 ;
146 [label="gini = 0.0\nsamples = 1\nvalue = [0, 0, 1]"] ;
136 -> 146 ;
147 [label="X[26] <= -0.245\ngini = 0.463\nsamples = 11\nvalue = [0, 7, 4]"] ;
135 -> 147 ;
148 [label="X[16] <= -1.592\ngini = 0.444\nsamples = 6\nvalue = [0, 2, 4]"] ;
147 -> 148 ;
149 [label="gini = 0.0\nsamples = 2\nvalue = [0, 2, 0]"] ;
148 -> 149 ;
150 [label="gini = 0.0\nsamples = 4\nvalue = [0, 0, 4]"] ;
148 -> 150 ;
151 [label="gini = 0.0\nsamples = 5\nvalue = [0, 5, 0]"] ;
147 -> 151 ;
152 [label="X[2] <= 0.445\ngini = 0.48\nsamples = 5\nvalue = [0, 2, 3]"] ;
134 -> 152 ;
153 [label="gini = 0.0\nsamples = 2\nvalue = [0, 2, 0]"] ;
152 -> 153 ;
154 [label="gini = 0.0\nsamples = 3\nvalue = [0, 0, 3]"] ;
152 -> 154 ;
155 [label="gini = 0.0\nsamples = 1\nvalue = [0, 0, 1]"] ;
131 -> 155 ;
156 [label="X[58] <= 0.251\ngini = 0.493\nsamples = 25\nvalue = [0, 14, 11]"] ;
130 -> 156 ;
157 [label="X[61] <= 2.903\ngini = 0.298\nsamples = 11\nvalue = [0, 9, 2]"] ;
156 -> 157 ;
158 [label="gini = 0.0\nsamples = 8\nvalue = [0, 8, 0]"] ;
157 -> 158 ;
159 [label="X[51] <= -0.527\ngini = 0.444\nsamples = 3\nvalue = [0, 1, 2]"] ;
157 -> 159 ;
160 [label="gini = 0.0\nsamples = 2\nvalue = [0, 0, 2]"] ;
159 -> 160 ;
161 [label="gini = 0.0\nsamples = 1\nvalue = [0, 1, 0]"] ;
159 -> 161 ;
162 [label="X[19] <= -0.767\ngini = 0.459\nsamples = 14\nvalue = [0, 5, 9]"] ;
156 -> 162 ;
163 [label="X[34] <= -0.602\ngini = 0.444\nsamples = 6\nvalue = [0, 4, 2]"] ;
162 -> 163 ;
164 [label="gini = 0.0\nsamples = 2\nvalue = [0, 0, 2]"] ;
163 -> 164 ;
165 [label="gini = 0.0\nsamples = 4\nvalue = [0, 4, 0]"] ;
163 -> 165 ;
166 [label="X[20] <= -0.212\ngini = 0.219\nsamples = 8\nvalue = [0, 1, 7]"] ;
162 -> 166 ;
167 [label="gini = 0.0\nsamples = 7\nvalue = [0, 0, 7]"] ;
166 -> 167 ;
168 [label="gini = 0.0\nsamples = 1\nvalue = [0, 1, 0]"] ;
166 -> 168 ;
169 [label="X[18] <= 0.339\ngini = 0.345\nsamples = 465\nvalue = [0, 362, 103]"] ;
3 -> 169 ;
170 [label="gini = 0.0\nsamples = 90\nvalue = [0, 0, 90]"] ;
169 -> 170 ;
171 [label="X[21] <= 2.688\ngini = 0.067\nsamples = 375\nvalue = [0, 362, 13]"] ;
169 -> 171 ;
172 [label="X[42] <= 1.637\ngini = 0.062\nsamples = 374\nvalue = [0, 362, 12]"] ;
171 -> 172 ;
173 [label="X[0] <= -0.106\ngini = 0.053\nsamples = 368\nvalue = [0, 358, 10]"] ;
172 -> 173 ;
174 [label="X[19] <= 1.131\ngini = 0.1\nsamples = 171\nvalue = [0, 162, 9]"] ;
173 -> 174 ;
175 [label="X[64] <= 2.118\ngini = 0.073\nsamples = 159\nvalue = [0, 153, 6]"] ;
174 -> 175 ;
176 [label="X[38] <= -0.364\ngini = 0.062\nsamples = 157\nvalue = [0, 152, 5]"] ;
175 -> 176 ;
177 [label="gini = 0.0\nsamples = 113\nvalue = [0, 113, 0]"] ;
176 -> 177 ;
178 [label="X[23] <= -0.532\ngini = 0.201\nsamples = 44\nvalue = [0, 39, 5]"] ;
176 -> 178 ;
179 [label="X[16] <= -0.55\ngini = 0.5\nsamples = 6\nvalue = [0, 3, 3]"] ;
178 -> 179 ;
180 [label="gini = 0.0\nsamples = 3\nvalue = [0, 0, 3]"] ;
179 -> 180 ;
181 [label="gini = 0.0\nsamples = 3\nvalue = [0, 3, 0]"] ;
179 -> 181 ;
182 [label="X[59] <= 0.484\ngini = 0.1\nsamples = 38\nvalue = [0, 36, 2]"] ;
178 -> 182 ;
183 [label="gini = 0.0\nsamples = 27\nvalue = [0, 27, 0]"] ;
182 -> 183 ;
184 [label="X[46] <= 0.219\ngini = 0.298\nsamples = 11\nvalue = [0, 9, 2]"] ;
182 -> 184 ;
185 [label="gini = 0.0\nsamples = 8\nvalue = [0, 8, 0]"] ;
184 -> 185 ;
186 [label="X[62] <= 0.166\ngini = 0.444\nsamples = 3\nvalue = [0, 1, 2]"] ;
184 -> 186 ;
187 [label="gini = 0.0\nsamples = 1\nvalue = [0, 1, 0]"] ;
186 -> 187 ;
188 [label="gini = 0.0\nsamples = 2\nvalue = [0, 0, 2]"] ;
186 -> 188 ;
189 [label="X[29] <= 0.347\ngini = 0.5\nsamples = 2\nvalue = [0, 1, 1]"] ;
175 -> 189 ;
190 [label="gini = 0.0\nsamples = 1\nvalue = [0, 0, 1]"] ;
189 -> 190 ;
191 [label="gini = 0.0\nsamples = 1\nvalue = [0, 1, 0]"] ;
189 -> 191 ;
192 [label="X[0] <= -0.563\ngini = 0.375\nsamples = 12\nvalue = [0, 9, 3]"] ;
174 -> 192 ;
193 [label="gini = 0.0\nsamples = 9\nvalue = [0, 9, 0]"] ;
192 -> 193 ;
194 [label="gini = 0.0\nsamples = 3\nvalue = [0, 0, 3]"] ;
192 -> 194 ;
195 [label="X[62] <= -2.433\ngini = 0.01\nsamples = 197\nvalue = [0, 196, 1]"] ;
173 -> 195 ;
196 [label="X[21] <= -1.025\ngini = 0.32\nsamples = 5\nvalue = [0, 4, 1]"] ;
195 -> 196 ;
197 [label="gini = 0.0\nsamples = 1\nvalue = [0, 0, 1]"] ;
196 -> 197 ;
198 [label="gini = 0.0\nsamples = 4\nvalue = [0, 4, 0]"] ;
196 -> 198 ;
199 [label="gini = 0.0\nsamples = 192\nvalue = [0, 192, 0]"] ;
195 -> 199 ;
200 [label="X[23] <= 0.827\ngini = 0.444\nsamples = 6\nvalue = [0, 4, 2]"] ;
172 -> 200 ;
201 [label="gini = 0.0\nsamples = 2\nvalue = [0, 0, 2]"] ;
200 -> 201 ;
202 [label="gini = 0.0\nsamples = 4\nvalue = [0, 4, 0]"] ;
200 -> 202 ;
203 [label="gini = 0.0\nsamples = 1\nvalue = [0, 0, 1]"] ;
171 -> 203 ;
204 [label="gini = 0.0\nsamples = 132\nvalue = [0, 0, 132]"] ;
0 -> 204 [labeldistance=2.5, labelangle=-45, headlabel="False"] ;
}